<?xml version="1.0"?>
<opencv_storage>
<cascade>
  <stageType>BOOST</stageType>
  <featureType>LBP</featureType>
  <height>60</height>
  <width>80</width>
  <stageParams>
    <boostType>GAB</boostType>
    <minHitRate>9.9900001287460327e-01</minHitRate>
    <maxFalseAlarm>5.0000000000000000e-01</maxFalseAlarm>
    <weightTrimRate>9.4999999999999996e-01</weightTrimRate>
    <maxDepth>1</maxDepth>
    <maxWeakCount>100</maxWeakCount></stageParams>
  <featureParams>
    <maxCatCount>256</maxCatCount>
    <featSize>1</featSize></featureParams>
  <stageNum>10</stageNum>
  <stages>
    <!-- stage 0 -->
    <_>
      <maxWeakCount>6</maxWeakCount>
      <stageThreshold>-1.1861200332641602e+00</stageThreshold>
      <weakClassifiers>
        <_>
          <internalNodes>
            0 -1 19 857153023 -8924161 -1746433 -6294049 -340406785
            -4608520 -7472129 2080177148</internalNodes>
          <leafValues>
            -7.5363260507583618e-01 5.8558559417724609e-01</leafValues></_>
        <_>
          <internalNodes>
            0 -1 46 587118167 2006974453 -67633249 1610612733 -131074
            -22151171 -5 2145386236</internalNodes>
          <leafValues>
            -6.2904506921768188e-01 7.4972558021545410e-01</leafValues></_>
        <_>
          <internalNodes>
            0 -1 29 1342493376 -207905 -539690499 -2236419 -72482820
            -69399840 -68551937 1073609726</internalNodes>
          <leafValues>
            -6.6025173664093018e-01 5.3865510225296021e-01</leafValues></_>
        <_>
          <internalNodes>
            0 -1 67 -71568389 -68196648 1588625375 -537927973 -17631558
            -1090793542 -679498001 2145115135</internalNodes>
          <leafValues>
            -5.3812128305435181e-01 6.8499928712844849e-01</leafValues></_>
        <_>
          <internalNodes>
            0 -1 1 8057457 -143335939 -142606729 -10158149 -1098907655
            -35850276 -16385 2080243693</internalNodes>
          <leafValues>
            -5.3195434808731079e-01 6.9878864288330078e-01</leafValues></_>
        <_>
          <internalNodes>
            0 -1 63 1097135829 -1083397 -402723713 -9699329 1744821693
            -1208715265 -671613201 2080372735</internalNodes>
          <leafValues>
            -4.9514251947402954e-01 7.2888737916946411e-01</leafValues></_></weakClassifiers></_>
    <!-- stage 1 -->
    <_>
      <maxWeakCount>5</maxWeakCount>
      <stageThreshold>-1.6847153902053833e+00</stageThreshold>
      <weakClassifiers>
        <_>
          <internalNodes>
            0 -1 25 1141241847 -134752257 -614074369 -131109 -3408897
            -279557 -67448833 2079326207</internalNodes>
          <leafValues>
            -7.3636960983276367e-01 4.9937421083450317e-01</leafValues></_>
        <_>
          <internalNodes>
            0 -1 71 1078909269 -2628135 -1223344641 -1748513 -97854465
            -6295311 -1413751809 2146413215</internalNodes>
          <leafValues>
            -6.3653802871704102e-01 7.1183562278747559e-01</leafValues></_>
        <_>
          <internalNodes>
            0 -1 95 -143654945 -36929 2004513979 -144862211 -1224803154
            -1691672962 -78184529 2143023035</internalNodes>
          <leafValues>
            -4.8186427354812622e-01 6.5460878610610962e-01</leafValues></_>
        <_>
          <internalNodes>
            0 -1 3 -1599111305 1438576475 -67246209 -570425419 -259
            -16908291 -131077 2147483645</internalNodes>
          <leafValues>
            -4.8138311505317688e-01 7.1279442310333252e-01</leafValues></_>
        <_>
          <internalNodes>
            0 -1 80 1953747381 -4767873 -1048593 1541406453 1442267069
            -78250113 -8454145 2113928191</internalNodes>
          <leafValues>
            -4.4154810905456543e-01 6.5143966674804688e-01</leafValues></_></weakClassifiers></_>
    <!-- stage 2 -->
    <_>
      <maxWeakCount>5</maxWeakCount>
      <stageThreshold>-2.0340712070465088e+00</stageThreshold>
      <weakClassifiers>
        <_>
          <internalNodes>
            0 -1 15 823890431 -547513349 -38150659 -10921067 -74908993
            -4613479 -74908677 2147347432</internalNodes>
          <leafValues>
            -7.1702635288238525e-01 4.5880863070487976e-01</leafValues></_>
        <_>
          <internalNodes>
            0 -1 36 -720896003 -67108865 -536880129 -4195329 -1
            -67167249 -1114145 2147483643</internalNodes>
          <leafValues>
            -5.6660598516464233e-01 6.5807104110717773e-01</leafValues></_>
        <_>
          <internalNodes>
            0 -1 0 67376145 1930942967 -1053229089 -1183326209 -4194305
            -168580161 -287572993 2076169215</internalNodes>
          <leafValues>
            -5.5491000413894653e-01 4.5244708657264709e-01</leafValues></_>
        <_>
          <internalNodes>
            0 -1 96 -7350049 -739763720 1528585427 -610303773
            -1223950596 -883170514 -207360065 466591867</internalNodes>
          <leafValues>
            -4.9382510781288147e-01 4.4697460532188416e-01</leafValues></_>
        <_>
          <internalNodes>
            0 -1 47 1075901456 23903965 -832768812 -872625188 2111619068
            -1088881165 -134931 2143158270</internalNodes>
          <leafValues>
            -7.0906084775924683e-01 2.6898342370986938e-01</leafValues></_></weakClassifiers></_>
    <!-- stage 3 -->
    <_>
      <maxWeakCount>8</maxWeakCount>
      <stageThreshold>-1.8574484586715698e+00</stageThreshold>
      <weakClassifiers>
        <_>
          <internalNodes>
            0 -1 61 -1057 -2359555 -172764673 -8193 -4194593 -4216065
            -2049 2146433023</internalNodes>
          <leafValues>
            -6.7522817850112915e-01 4.2365887761116028e-01</leafValues></_>
        <_>
          <internalNodes>
            0 -1 57 -1 -659497 -67108865 -1179649 -537002003 -268640804
            -393217 2147352559</internalNodes>
          <leafValues>
            -5.8617973327636719e-01 6.2355446815490723e-01</leafValues></_>
        <_>
          <internalNodes>
            0 -1 9 1413281136 2000486353 -538986084 -176366084
            -139133508 -374508035 -67239940 2112683135</internalNodes>
          <leafValues>
            -6.4063286781311035e-01 3.0823266506195068e-01</leafValues></_>
        <_>
          <internalNodes>
            0 -1 81 70388484 1057814412 -706152546 -67324289 -1786500
            -8108553 -336282116 2078079484</internalNodes>
          <leafValues>
            -7.2976684570312500e-01 2.1543951332569122e-01</leafValues></_>
        <_>
          <internalNodes>
            0 -1 53 1185466116 -1673749448 -828835844 -153813164
            1172690936 -1855917594 -159055955 1962737525</internalNodes>
          <leafValues>
            -6.8564718961715698e-01 2.2951069474220276e-01</leafValues></_>
        <_>
          <internalNodes>
            0 -1 23 288074658 -1209600001 -151010393 -100810849 -8396961
            -219185434 -671975697 -196612</internalNodes>
          <leafValues>
            -3.0385878682136536e-01 5.3048235177993774e-01</leafValues></_>
        <_>
          <internalNodes>
            0 -1 85 216926163 -117577813 1861925615 -34080769 -336865286
            -33657100 1064796078 -302197836</internalNodes>
          <leafValues>
            -3.6693352460861206e-01 4.8965835571289062e-01</leafValues></_>
        <_>
          <internalNodes>
            0 -1 62 -1065361022 -1254790 -213086324 -78326276 -82903852
            1293200285 -3876392 2104094463</internalNodes>
          <leafValues>
            -5.6390666961669922e-01 3.2525524497032166e-01</leafValues></_></weakClassifiers></_>
    <!-- stage 4 -->
    <_>
      <maxWeakCount>8</maxWeakCount>
      <stageThreshold>-1.8047997951507568e+00</stageThreshold>
      <weakClassifiers>
        <_>
          <internalNodes>
            0 -1 20 -2097153 -6291969 -33962497 -524897 -16777217
            -105121285 -71565313 2147483647</internalNodes>
          <leafValues>
            -6.7157274484634399e-01 4.4641590118408203e-01</leafValues></_>
        <_>
          <internalNodes>
            0 -1 93 -264193 -37945985 -3 -134225987 -134217729 -131217
            -16777985 2147483647</internalNodes>
          <leafValues>
            -5.4973977804183960e-01 6.5046280622482300e-01</leafValues></_>
        <_>
          <internalNodes>
            0 -1 32 542174564 -1690600595 -1178625298 -1281477633
            -271876105 234085310 -1080107713 2040004607</internalNodes>
          <leafValues>
            -5.5504953861236572e-01 2.9250046610832214e-01</leafValues></_>
        <_>
          <internalNodes>
            0 -1 12 867647423 -1682046981 -68161553 -262408 -33556481
            -526467 -204801 -3342468</internalNodes>
          <leafValues>
            -2.5408056378364563e-01 6.2654858827590942e-01</leafValues></_>
        <_>
          <internalNodes>
            0 -1 43 331300511 -570949653 -34604309 -1610743812
            -402850417 -271122579 -1116711 -67274756</internalNodes>
          <leafValues>
            -2.6013147830963135e-01 5.8817547559738159e-01</leafValues></_>
        <_>
          <internalNodes>
            0 -1 27 1388902340 -150155932 1731505900 -168755217
            -59902020 -560713564 -80939010 2011034565</internalNodes>
          <leafValues>
            -5.6045043468475342e-01 3.1055700778961182e-01</leafValues></_>
        <_>
          <internalNodes>
            0 -1 54 1073792064 2147024756 -589760516 1072487420
            -320274460 -1112479064 1069054941 463796220</internalNodes>
          <leafValues>
            -8.3823502063751221e-01 1.8835568428039551e-01</leafValues></_>
        <_>
          <internalNodes>
            0 -1 69 1073996546 -318770742 -280392870 -1935288961
            -515680762 922487165 -70320201 1693974493</internalNodes>
          <leafValues>
            -6.7376339435577393e-01 1.6590222716331482e-01</leafValues></_></weakClassifiers></_>
    <!-- stage 5 -->
    <_>
      <maxWeakCount>11</maxWeakCount>
      <stageThreshold>-1.5714811086654663e+00</stageThreshold>
      <weakClassifiers>
        <_>
          <internalNodes>
            0 -1 86 1143076693 -136841281 -1612711937 -2561 -263169
            -71607053 -5243905 2147482623</internalNodes>
          <leafValues>
            -7.1791118383407593e-01 1.8238992989063263e-01</leafValues></_>
        <_>
          <internalNodes>
            0 -1 2 -33 -579014155 -36110339 -111280163 -335544321
            -6490707 -1049601 2147350527</internalNodes>
          <leafValues>
            -5.0073862075805664e-01 4.6281704306602478e-01</leafValues></_>
        <_>
          <internalNodes>
            0 -1 10 -1069096844 1069404061 -145430282 -881534268
            -11157540 -1084429388 -554830852 2143149055</internalNodes>
          <leafValues>
            -5.8194893598556519e-01 2.4484622478485107e-01</leafValues></_>
        <_>
          <internalNodes>
            0 -1 88 185351935 -1025115141 -957366659 -164102145
            -830734346 -1400897699 -144246820 -57348100</internalNodes>
          <leafValues>
            -3.4406837821006775e-01 4.1397988796234131e-01</leafValues></_>
        <_>
          <internalNodes>
            0 -1 17 177924 -1242636342 -1118156488 -1311245414
            -206833633 1468470131 2137089774 2146959359</internalNodes>
          <leafValues>
            -5.6115919351577759e-01 2.7547317743301392e-01</leafValues></_>
        <_>
          <internalNodes>
            0 -1 24 528297597 -576323653 -69896 -4391188 -178847935
            -1006837764 -134881856 -251854852</internalNodes>
          <leafValues>
            -3.6723029613494873e-01 4.3208086490631104e-01</leafValues></_>
        <_>
          <internalNodes>
            0 -1 87 -598148272 -1764960258 -139704324 -204195424
            -265017368 -200147527 -1370949640 1929309941</internalNodes>
          <leafValues>
            -5.8689743280410767e-01 2.4830164015293121e-01</leafValues></_>
        <_>
          <internalNodes>
            0 -1 83 1084509188 -1280508072 -913413155 -547226178
            -188417708 1875952377 -71779043 2088298495</internalNodes>
          <leafValues>
            -6.9781655073165894e-01 1.8249757587909698e-01</leafValues></_>
        <_>
          <internalNodes>
            0 -1 59 861345687 -842215698 -443550935 -245531122
            1264188908 -1034270016 -674902096 -1036661932</internalNodes>
          <leafValues>
            -3.6489108204841614e-01 4.2386540770530701e-01</leafValues></_>
        <_>
          <internalNodes>
            0 -1 31 -2077830878 -1353802029 -531420290 -1443889436
            1037690094 425752954 -28967187 2044721149</internalNodes>
          <leafValues>
            -5.4954785108566284e-01 2.4853077530860901e-01</leafValues></_>
        <_>
          <internalNodes>
            0 -1 56 811726503 -294724866 1861910511 -1192837187
            -487131171 -486541707 -721658242 -1247268</internalNodes>
          <leafValues>
            -3.1163352727890015e-01 4.8209220170974731e-01</leafValues></_></weakClassifiers></_>
    <!-- stage 6 -->
    <_>
      <maxWeakCount>11</maxWeakCount>
      <stageThreshold>-1.3609724044799805e+00</stageThreshold>
      <weakClassifiers>
        <_>
          <internalNodes>
            0 -1 91 -731875515 -4357 -152771586 -553 -205530113
            -136462021 -537952513 2147483647</internalNodes>
          <leafValues>
            -7.0924073457717896e-01 -5.6017346680164337e-02</leafValues></_>
        <_>
          <internalNodes>
            0 -1 51 -172171530 -222494757 757788076 -45811986 -675415315
            1471538637 -1971198993 2146299606</internalNodes>
          <leafValues>
            -5.9483140707015991e-01 1.8244960904121399e-01</leafValues></_>
        <_>
          <internalNodes>
            0 -1 22 814068683 -196625 -1476526123 -69927041 -671236099
            -71540739 -8585220 -131617</internalNodes>
          <leafValues>
            -2.5807321071624756e-01 4.7983786463737488e-01</leafValues></_>
        <_>
          <internalNodes>
            0 -1 13 918532031 -8913221 -1610747905 -201343043 -134348801
            -118554625 1584332798 -131076</internalNodes>
          <leafValues>
            -2.0562452077865601e-01 6.1348336935043335e-01</leafValues></_>
        <_>
          <internalNodes>
            0 -1 39 -436274232 -2000403918 -778123892 -726083240
            -309985612 1518344529 -412030923 1655241695</internalNodes>
          <leafValues>
            -6.4358669519424438e-01 2.6262506842613220e-01</leafValues></_>
        <_>
          <internalNodes>
            0 -1 84 631977803 -572064002 -339772445 -756236418
            -411238563 981401535 -403212292 -134414372</internalNodes>
          <leafValues>
            -3.0154344439506531e-01 4.0795168280601501e-01</leafValues></_>
        <_>
          <internalNodes>
            0 -1 50 1353180484 -1191329457 202052863 652350131
            1418084965 1131906417 -1044123851 2012740479</internalNodes>
          <leafValues>
            -6.1656522750854492e-01 2.2207267582416534e-01</leafValues></_>
        <_>
          <internalNodes>
            0 -1 55 1068904387 1563951087 2146426873 -16859169
            -364980449 -542253058 -163840006 -1245778020</internalNodes>
          <leafValues>
            -2.6986026763916016e-01 3.9188700914382935e-01</leafValues></_>
        <_>
          <internalNodes>
            0 -1 64 -1072694444 -80164276 -787324654 -79135428
            1809414845 -314025876 -425853880 1758960125</internalNodes>
          <leafValues>
            -5.5272942781448364e-01 2.4092508852481842e-01</leafValues></_>
        <_>
          <internalNodes>
            0 -1 49 -334826270 1636084396 -1877816504 -485563388
            584957712 2002307933 -16399844 1087958390</internalNodes>
          <leafValues>
            -6.6724455356597900e-01 1.4801283180713654e-01</leafValues></_>
        <_>
          <internalNodes>
            0 -1 40 1099333779 -1769015302 -1358995861 -571482377
            -304153636 2004189043 -134322178 -2293860</internalNodes>
          <leafValues>
            -2.6600497961044312e-01 4.8625907301902771e-01</leafValues></_></weakClassifiers></_>
    <!-- stage 7 -->
    <_>
      <maxWeakCount>12</maxWeakCount>
      <stageThreshold>-1.6914550065994263e+00</stageThreshold>
      <weakClassifiers>
        <_>
          <internalNodes>
            0 -1 90 1213387543 -79367183 -1056802956 -539961420
            -607585346 -373254687 -571670785 2147483647</internalNodes>
          <leafValues>
            -7.0951789617538452e-01 -9.1840215027332306e-02</leafValues></_>
        <_>
          <internalNodes>
            0 -1 73 1648514048 966688759 156166246 -1613117827
            1203051258 -1161638453 -137808129 1976562687</internalNodes>
          <leafValues>
            -5.9570926427841187e-01 1.4128166437149048e-01</leafValues></_>
        <_>
          <internalNodes>
            0 -1 33 467803899 -21236762 2113404652 -547097610
            -1092628805 -756121602 -17 -20392196</internalNodes>
          <leafValues>
            -3.0035158991813660e-01 4.0451061725616455e-01</leafValues></_>
        <_>
          <internalNodes>
            0 -1 92 939212799 -671236867 -26484739 -537500165 -555907073
            -1631602832 -163588137 -721476</internalNodes>
          <leafValues>
            -2.2534301877021790e-01 5.3267395496368408e-01</leafValues></_>
        <_>
          <internalNodes>
            0 -1 60 1073792004 -1027554050 -129992005 -1024732087
            -2121711403 1390061138 -874104473 2013257687</internalNodes>
          <leafValues>
            -6.4378941059112549e-01 2.2368176281452179e-01</leafValues></_>
        <_>
          <internalNodes>
            0 -1 70 -856496632 -433793628 1108395060 -792661571
            -938947596 1735954821 -626769252 1624570657</internalNodes>
          <leafValues>
            -6.9535183906555176e-01 1.2789116799831390e-01</leafValues></_>
        <_>
          <internalNodes>
            0 -1 75 -734020165 -554767755 -1073828115 -1618543619
            -1698318607 -193890571 -52630090 -268634308</internalNodes>
          <leafValues>
            -2.5221127271652222e-01 5.0321108102798462e-01</leafValues></_>
        <_>
          <internalNodes>
            0 -1 38 -1006090988 -1810597530 1683729882 1832858035
            -220349711 1889148102 -471629842 1809046503</internalNodes>
          <leafValues>
            -5.4276955127716064e-01 2.0686335861682892e-01</leafValues></_>
        <_>
          <internalNodes>
            0 -1 11 481771071 -643567781 -100753561 -772276240
            -839426113 796917621 -10035587 -35854388</internalNodes>
          <leafValues>
            -2.3747506737709045e-01 4.6126660704612732e-01</leafValues></_>
        <_>
          <internalNodes>
            0 -1 5 1074264578 1418559677 -1072309097 -709635771
            -114605109 1738528779 -2146257409 2012215979</internalNodes>
          <leafValues>
            -5.9030145406723022e-01 2.2618591785430908e-01</leafValues></_>
        <_>
          <internalNodes>
            0 -1 18 925876127 -135340034 -268439747 -1174556674
            -134284033 394131412 -720952 -134348804</internalNodes>
          <leafValues>
            -2.4553884565830231e-01 4.6038287878036499e-01</leafValues></_>
        <_>
          <internalNodes>
            0 -1 34 -63202042 1175761674 -2069824450 -1342120036
            948951951 1875506079 -238310939 1962409843</internalNodes>
          <leafValues>
            -6.2317651510238647e-01 2.0122091472148895e-01</leafValues></_></weakClassifiers></_>
    <!-- stage 8 -->
    <_>
      <maxWeakCount>14</maxWeakCount>
      <stageThreshold>-1.2128751277923584e+00</stageThreshold>
      <weakClassifiers>
        <_>
          <internalNodes>
            0 -1 7 1360002047 -539502639 -258705955 -5776481 -205653765
            -4401685 -565182465 -393220</internalNodes>
          <leafValues>
            -5.4237949848175049e-01 2.2037218511104584e-01</leafValues></_>
        <_>
          <internalNodes>
            0 -1 76 -1067433900 -85396994 -782612562 -141765240
            -606017812 -551496959 -609424419 2147349471</internalNodes>
          <leafValues>
            -6.2607759237289429e-01 1.4711186289787292e-01</leafValues></_>
        <_>
          <internalNodes>
            0 -1 14 139133634 -214565961 -72499208 -738197506 2113716191
            -1073873068 -134416388 -67504901</internalNodes>
          <leafValues>
            -3.2037073373794556e-01 3.7479186058044434e-01</leafValues></_>
        <_>
          <internalNodes>
            0 -1 82 335562752 134277127 -992654134 239878174 574298925
            -1602051949 -572774626 2142765023</internalNodes>
          <leafValues>
            -6.3034200668334961e-01 2.3019334673881531e-01</leafValues></_>
        <_>
          <internalNodes>
            0 -1 74 342047231 -580583826 -590422040 -604378696
            -269156407 -671088649 -1560320002 -219352290</internalNodes>
          <leafValues>
            -2.4911835789680481e-01 4.3705210089683533e-01</leafValues></_>
        <_>
          <internalNodes>
            0 -1 58 -776539188 1476710858 1323883748 -1025977000
            1108408880 -150445151 -205489887 2063400813</internalNodes>
          <leafValues>
            -6.8653643131256104e-01 1.6099736094474792e-01</leafValues></_>
        <_>
          <internalNodes>
            0 -1 94 474943345 -110100812 -268501185 -488378372
            -570538058 -2228361 -8448025 -1244119044</internalNodes>
          <leafValues>
            -2.7865251898765564e-01 3.9648121595382690e-01</leafValues></_>
        <_>
          <internalNodes>
            0 -1 68 -429988624 -88439686 1330238302 -938846584 815131984
            -1957361632 -1084189432 2029452387</internalNodes>
          <leafValues>
            -6.3874357938766479e-01 1.8907117843627930e-01</leafValues></_>
        <_>
          <internalNodes>
            0 -1 26 1073922048 -1408721514 -2130358206 -1340194813
            272347445 805558351 849613163 1626332271</internalNodes>
          <leafValues>
            -7.0972800254821777e-01 1.1947952210903168e-01</leafValues></_>
        <_>
          <internalNodes>
            0 -1 66 796534363 1257013149 -202376531 -184549385
            1090498519 -687996939 -134744181 -303239372</internalNodes>
          <leafValues>
            -2.5785514712333679e-01 4.5105475187301636e-01</leafValues></_>
        <_>
          <internalNodes>
            0 -1 48 -1819021294 330489936 -1918725022 -230682487
            1510875671 -257941294 1808339277 1977089535</internalNodes>
          <leafValues>
            -5.4262006282806396e-01 1.8398597836494446e-01</leafValues></_>
        <_>
          <internalNodes>
            0 -1 16 275985597 -112935425 -1409335683 -1110593858
            -1107844104 2138373998 -143377448 -755716</internalNodes>
          <leafValues>
            -2.3131604492664337e-01 4.4532135128974915e-01</leafValues></_>
        <_>
          <internalNodes>
            0 -1 8 -1071397856 -45072298 1233300 -877113077 1259636997
            2025215045 -822290182 2146955067</internalNodes>
          <leafValues>
            -5.0048655271530151e-01 1.8640644848346710e-01</leafValues></_>
        <_>
          <internalNodes>
            0 -1 4 -1302595594 939458556 -536969513 -683769875
            -159514628 -131459 -260 -17301507</internalNodes>
          <leafValues>
            -1.4325715601444244e-01 7.0739579200744629e-01</leafValues></_></weakClassifiers></_>
    <!-- stage 9 -->
    <_>
      <maxWeakCount>17</maxWeakCount>
      <stageThreshold>-1.2614492177963257e+00</stageThreshold>
      <weakClassifiers>
        <_>
          <internalNodes>
            0 -1 41 1414513911 -552622259 969986975 -1147284047
            -274998275 -668381135 -683571975 -4391428</internalNodes>
          <leafValues>
            -5.8255451917648315e-01 1.7777778208255768e-01</leafValues></_>
        <_>
          <internalNodes>
            0 -1 65 855847327 -42139651 -589825 -1184005 -620990594
            -402854281 -18435 -4194321</internalNodes>
          <leafValues>
            -2.5664108991622925e-01 5.4527533054351807e-01</leafValues></_>
        <_>
          <internalNodes>
            0 -1 42 -645726748 -1038560704 1644710472 -1427597940
            1132524292 1087668257 -123863708 1626655485</internalNodes>
          <leafValues>
            -7.4705106019973755e-01 1.3249126076698303e-01</leafValues></_>
        <_>
          <internalNodes>
            0 -1 6 707680 -34473100 1862139727 -983059 -2295891
            -671850633 -537077763 -33759384</internalNodes>
          <leafValues>
            -2.8100290894508362e-01 4.2184358835220337e-01</leafValues></_>
        <_>
          <internalNodes>
            0 -1 30 1086380736 -25913052 -616278130 -647965246 956491800
            557090886 -58635845 869790151</internalNodes>
          <leafValues>
            -6.1737835407257080e-01 1.7263273894786835e-01</leafValues></_>
        <_>
          <internalNodes>
            0 -1 37 40569597 -542334981 2121264055 -536936517 -184549465
            1794605037 -659489 -335740996</internalNodes>
          <leafValues>
            -2.3662009835243225e-01 4.7772231698036194e-01</leafValues></_>
        <_>
          <internalNodes>
            0 -1 52 1078379520 1012532490 -2012192618 82215380
            1149358915 554172851 -2129326045 637532223</internalNodes>
          <leafValues>
            -6.9046539068222046e-01 1.6081237792968750e-01</leafValues></_>
        <_>
          <internalNodes>
            0 -1 21 -439815032 314626186 1528697944 1835921676
            1631646372 -548861799 -1058674160 1620371700</internalNodes>
          <leafValues>
            -6.7335903644561768e-01 9.8299451172351837e-02</leafValues></_>
        <_>
          <internalNodes>
            0 -1 77 648691372 -520229139 -16842907 -106373199 -151193789
            1593298927 -1091256749 -454635666</internalNodes>
          <leafValues>
            -2.3140422999858856e-01 4.8062521219253540e-01</leafValues></_>
        <_>
          <internalNodes>
            0 -1 78 -627116160 -1026505684 -1308432892 1688371608
            -104851368 1505329672 1729422397 1182071364</internalNodes>
          <leafValues>
            -7.6719611883163452e-01 1.1939127743244171e-01</leafValues></_>
        <_>
          <internalNodes>
            0 -1 45 -1158750254 2013200254 -98473 -604639235 -142608452
            -285868036 -134414436 -1074397187</internalNodes>
          <leafValues>
            -1.5816183388233185e-01 6.6013431549072266e-01</leafValues></_>
        <_>
          <internalNodes>
            0 -1 79 752554087 -1279918226 -301989955 -50512065
            -134744707 -65537 -285285378 -71312777</internalNodes>
          <leafValues>
            -1.5060326457023621e-01 5.5908316373825073e-01</leafValues></_>
        <_>
          <internalNodes>
            0 -1 44 -1151609905 1565196494 1913667822 -937115253
            2019568113 538234114 -750753980 1655960154</internalNodes>
          <leafValues>
            -6.2169575691223145e-01 1.5249432623386383e-01</leafValues></_>
        <_>
          <internalNodes>
            0 -1 28 1000819667 -47355992 738163636 2028863420 1727852244
            -142804995 -84508754 -310535266</internalNodes>
          <leafValues>
            -1.6972951591014862e-01 5.1932376623153687e-01</leafValues></_>
        <_>
          <internalNodes>
            0 -1 72 -922511008 1303115891 -892318630 1351897304
            504582391 1119339141 -261633893 1650973679</internalNodes>
          <leafValues>
            -5.8452117443084717e-01 1.7359943687915802e-01</leafValues></_>
        <_>
          <internalNodes>
            0 -1 89 -105980291 -34144260 -16385 -180228 -17891332
            1878947837 -229636 -270729504</internalNodes>
          <leafValues>
            -1.8351617455482483e-01 4.3932574987411499e-01</leafValues></_>
        <_>
          <internalNodes>
            0 -1 35 1074163792 182329960 -1960279801 -779189875
            -1852056665 -1532873503 -1970828689 1828708063</internalNodes>
          <leafValues>
            -6.0886305570602417e-01 1.5376806259155273e-01</leafValues></_></weakClassifiers></_></stages>
  <features>
    <_>
      <rect>
        0 0 7 2</rect></_>
    <_>
      <rect>
        0 0 10 1</rect></_>
    <_>
      <rect>
        0 0 14 9</rect></_>
    <_>
      <rect>
        0 0 17 1</rect></_>
    <_>
      <rect>
        0 0 25 1</rect></_>
    <_>
      <rect>
        0 0 26 4</rect></_>
    <_>
      <rect>
        0 5 13 14</rect></_>
    <_>
      <rect>
        0 5 26 14</rect></_>
    <_>
      <rect>
        0 6 9 17</rect></_>
    <_>
      <rect>
        0 6 14 17</rect></_>
    <_>
      <rect>
        0 8 21 16</rect></_>
    <_>
      <rect>
        0 14 10 5</rect></_>
    <_>
      <rect>
        0 15 23 4</rect></_>
    <_>
      <rect>
        0 15 26 4</rect></_>
    <_>
      <rect>
        0 15 26 14</rect></_>
    <_>
      <rect>
        0 18 25 2</rect></_>
    <_>
      <rect>
        0 31 13 8</rect></_>
    <_>
      <rect>
        0 33 26 9</rect></_>
    <_>
      <rect>
        0 35 25 4</rect></_>
    <_>
      <rect>
        0 35 26 4</rect></_>
    <_>
      <rect>
        0 42 19 6</rect></_>
    <_>
      <rect>
        1 4 13 8</rect></_>
    <_>
      <rect>
        1 9 23 17</rect></_>
    <_>
      <rect>
        1 30 26 9</rect></_>
    <_>
      <rect>
        1 35 14 4</rect></_>
    <_>
      <rect>
        1 38 19 5</rect></_>
    <_>
      <rect>
        1 39 12 4</rect></_>
    <_>
      <rect>
        2 0 26 10</rect></_>
    <_>
      <rect>
        2 6 9 9</rect></_>
    <_>
      <rect>
        2 8 26 16</rect></_>
    <_>
      <rect>
        2 11 26 11</rect></_>
    <_>
      <rect>
        2 34 13 8</rect></_>
    <_>
      <rect>
        2 35 9 8</rect></_>
    <_>
      <rect>
        2 36 2 4</rect></_>
    <_>
      <rect>
        2 45 19 5</rect></_>
    <_>
      <rect>
        3 0 7 4</rect></_>
    <_>
      <rect>
        3 33 23 9</rect></_>
    <_>
      <rect>
        3 37 15 3</rect></_>
    <_>
      <rect>
        3 38 6 5</rect></_>
    <_>
      <rect>
        4 24 16 8</rect></_>
    <_>
      <rect>
        4 30 18 9</rect></_>
    <_>
      <rect>
        5 2 19 17</rect></_>
    <_>
      <rect>
        5 12 17 4</rect></_>
    <_>
      <rect>
        5 34 25 5</rect></_>
    <_>
      <rect>
        5 48 25 4</rect></_>
    <_>
      <rect>
        6 0 16 1</rect></_>
    <_>
      <rect>
        6 0 20 1</rect></_>
    <_>
      <rect>
        6 12 16 14</rect></_>
    <_>
      <rect>
        6 13 15 10</rect></_>
    <_>
      <rect>
        7 3 14 8</rect></_>
    <_>
      <rect>
        7 39 19 7</rect></_>
    <_>
      <rect>
        8 8 24 6</rect></_>
    <_>
      <rect>
        8 38 13 4</rect></_>
    <_>
      <rect>
        9 0 17 10</rect></_>
    <_>
      <rect>
        12 0 21 20</rect></_>
    <_>
      <rect>
        12 12 5 6</rect></_>
    <_>
      <rect>
        12 30 22 9</rect></_>
    <_>
      <rect>
        14 2 22 9</rect></_>
    <_>
      <rect>
        16 26 16 7</rect></_>
    <_>
      <rect>
        17 3 15 10</rect></_>
    <_>
      <rect>
        17 16 20 6</rect></_>
    <_>
      <rect>
        17 45 21 5</rect></_>
    <_>
      <rect>
        18 7 20 15</rect></_>
    <_>
      <rect>
        18 36 20 7</rect></_>
    <_>
      <rect>
        19 6 14 17</rect></_>
    <_>
      <rect>
        19 9 19 17</rect></_>
    <_>
      <rect>
        19 15 7 4</rect></_>
    <_>
      <rect>
        19 42 1 1</rect></_>
    <_>
      <rect>
        20 8 16 6</rect></_>
    <_>
      <rect>
        20 38 17 4</rect></_>
    <_>
      <rect>
        22 0 19 10</rect></_>
    <_>
      <rect>
        26 0 17 2</rect></_>
    <_>
      <rect>
        26 0 18 7</rect></_>
    <_>
      <rect>
        26 36 18 8</rect></_>
    <_>
      <rect>
        28 3 17 10</rect></_>
    <_>
      <rect>
        28 29 16 10</rect></_>
    <_>
      <rect>
        29 6 17 16</rect></_>
    <_>
      <rect>
        31 5 7 9</rect></_>
    <_>
      <rect>
        33 26 10 7</rect></_>
    <_>
      <rect>
        34 17 8 13</rect></_>
    <_>
      <rect>
        34 35 15 8</rect></_>
    <_>
      <rect>
        41 12 13 15</rect></_>
    <_>
      <rect>
        42 33 12 9</rect></_>
    <_>
      <rect>
        44 4 10 18</rect></_>
    <_>
      <rect>
        44 35 12 4</rect></_>
    <_>
      <rect>
        45 13 10 6</rect></_>
    <_>
      <rect>
        47 39 11 3</rect></_>
    <_>
      <rect>
        48 0 10 10</rect></_>
    <_>
      <rect>
        48 15 5 4</rect></_>
    <_>
      <rect>
        49 2 5 17</rect></_>
    <_>
      <rect>
        50 5 10 17</rect></_>
    <_>
      <rect>
        59 34 7 8</rect></_>
    <_>
      <rect>
        61 15 6 4</rect></_>
    <_>
      <rect>
        62 0 6 10</rect></_>
    <_>
      <rect>
        64 35 4 4</rect></_>
    <_>
      <rect>
        67 55 1 1</rect></_>
    <_>
      <rect>
        71 53 1 1</rect></_></features></cascade>
</opencv_storage>
