<?xml version="1.0"?>
<opencv_storage>
<stage5>
  <maxWeakCount>11</maxWeakCount>
  <stageThreshold>-1.5714811086654663e+00</stageThreshold>
  <weakClassifiers>
    <_>
      <internalNodes>
        0 -1 523222 1143076693 -136841281 -1612711937 -2561 -263169
        -71607053 -5243905 2147482623</internalNodes>
      <leafValues>
        -7.1791118383407593e-01 1.8238992989063263e-01</leafValues></_>
    <_>
      <internalNodes>
        0 -1 268 -33 -579014155 -36110339 -111280163 -335544321 -6490707
        -1049601 2147350527</internalNodes>
      <leafValues>
        -5.0073862075805664e-01 4.6281704306602478e-01</leafValues></_>
    <_>
      <internalNodes>
        0 -1 4203 -1069096844 1069404061 -145430282 -881534268 -11157540
        -1084429388 -554830852 2143149055</internalNodes>
      <leafValues>
        -5.8194893598556519e-01 2.4484622478485107e-01</leafValues></_>
    <_>
      <internalNodes>
        0 -1 526583 185351935 -1025115141 -957366659 -164102145
        -830734346 -1400897699 -144246820 -57348100</internalNodes>
      <leafValues>
        -3.4406837821006775e-01 4.1397988796234131e-01</leafValues></_>
    <_>
      <internalNodes>
        0 -1 12531 177924 -1242636342 -1118156488 -1311245414 -206833633
        1468470131 2137089774 2146959359</internalNodes>
      <leafValues>
        -5.6115919351577759e-01 2.7547317743301392e-01</leafValues></_>
    <_>
      <internalNodes>
        0 -1 28187 528297597 -576323653 -69896 -4391188 -178847935
        -1006837764 -134881856 -251854852</internalNodes>
      <leafValues>
        -3.6723029613494873e-01 4.3208086490631104e-01</leafValues></_>
    <_>
      <internalNodes>
        0 -1 524109 -598148272 -1764960258 -139704324 -204195424
        -265017368 -200147527 -1370949640 1929309941</internalNodes>
      <leafValues>
        -5.8689743280410767e-01 2.4830164015293121e-01</leafValues></_>
    <_>
      <internalNodes>
        0 -1 498473 1084509188 -1280508072 -913413155 -547226178
        -188417708 1875952377 -71779043 2088298495</internalNodes>
      <leafValues>
        -6.9781655073165894e-01 1.8249757587909698e-01</leafValues></_>
    <_>
      <internalNodes>
        0 -1 238673 861345687 -842215698 -443550935 -245531122
        1264188908 -1034270016 -674902096 -1036661932</internalNodes>
      <leafValues>
        -3.6489108204841614e-01 4.2386540770530701e-01</leafValues></_>
    <_>
      <internalNodes>
        0 -1 43315 -2077830878 -1353802029 -531420290 -1443889436
        1037690094 425752954 -28967187 2044721149</internalNodes>
      <leafValues>
        -5.4954785108566284e-01 2.4853077530860901e-01</leafValues></_>
    <_>
      <internalNodes>
        0 -1 183468 811726503 -294724866 1861910511 -1192837187
        -487131171 -486541707 -721658242 -1247268</internalNodes>
      <leafValues>
        -3.1163352727890015e-01 4.8209220170974731e-01</leafValues></_></weakClassifiers></stage5>
</opencv_storage>
