<?xml version="1.0"?>
<opencv_storage>
<stage3>
  <maxWeakCount>8</maxWeakCount>
  <stageThreshold>-1.8574484586715698e+00</stageThreshold>
  <weakClassifiers>
    <_>
      <internalNodes>
        0 -1 248939 -1057 -2359555 -172764673 -8193 -4194593 -4216065
        -2049 2146433023</internalNodes>
      <leafValues>
        -6.7522817850112915e-01 4.2365887761116028e-01</leafValues></_>
    <_>
      <internalNodes>
        0 -1 200685 -1 -659497 -67108865 -1179649 -537002003 -268640804
        -393217 2147352559</internalNodes>
      <leafValues>
        -5.8617973327636719e-01 6.2355446815490723e-01</leafValues></_>
    <_>
      <internalNodes>
        0 -1 3188 1413281136 2000486353 -538986084 -176366084 -139133508
        -374508035 -67239940 2112683135</internalNodes>
      <leafValues>
        -6.4063286781311035e-01 3.0823266506195068e-01</leafValues></_>
    <_>
      <internalNodes>
        0 -1 478528 70388484 1057814412 -706152546 -67324289 -1786500
        -8108553 -336282116 2078079484</internalNodes>
      <leafValues>
        -7.2976684570312500e-01 2.1543951332569122e-01</leafValues></_>
    <_>
      <internalNodes>
        0 -1 133079 1185466116 -1673749448 -828835844 -153813164
        1172690936 -1855917594 -159055955 1962737525</internalNodes>
      <leafValues>
        -6.8564718961715698e-01 2.2951069474220276e-01</leafValues></_>
    <_>
      <internalNodes>
        0 -1 27168 288074658 -1209600001 -151010393 -100810849 -8396961
        -219185434 -671975697 -196612</internalNodes>
      <leafValues>
        -3.0385878682136536e-01 5.3048235177993774e-01</leafValues></_>
    <_>
      <internalNodes>
        0 -1 507120 216926163 -117577813 1861925615 -34080769 -336865286
        -33657100 1064796078 -302197836</internalNodes>
      <leafValues>
        -3.6693352460861206e-01 4.8965835571289062e-01</leafValues></_>
    <_>
      <internalNodes>
        0 -1 252527 -1065361022 -1254790 -213086324 -78326276 -82903852
        1293200285 -3876392 2104094463</internalNodes>
      <leafValues>
        -5.6390666961669922e-01 3.2525524497032166e-01</leafValues></_></weakClassifiers></stage3>
</opencv_storage>
