<?xml version="1.0"?>
<opencv_storage>
<stage4>
  <maxWeakCount>8</maxWeakCount>
  <stageThreshold>-1.8047997951507568e+00</stageThreshold>
  <weakClassifiers>
    <_>
      <internalNodes>
        0 -1 14127 -2097153 -6291969 -33962497 -524897 -16777217
        -105121285 -71565313 2147483647</internalNodes>
      <leafValues>
        -6.7157274484634399e-01 4.4641590118408203e-01</leafValues></_>
    <_>
      <internalNodes>
        0 -1 591289 -264193 -37945985 -3 -134225987 -134217729 -131217
        -16777985 2147483647</internalNodes>
      <leafValues>
        -5.4973977804183960e-01 6.5046280622482300e-01</leafValues></_>
    <_>
      <internalNodes>
        0 -1 43491 542174564 -1690600595 -1178625298 -1281477633
        -271876105 234085310 -1080107713 2040004607</internalNodes>
      <leafValues>
        -5.5504953861236572e-01 2.9250046610832214e-01</leafValues></_>
    <_>
      <internalNodes>
        0 -1 7093 867647423 -1682046981 -68161553 -262408 -33556481
        -526467 -204801 -3342468</internalNodes>
      <leafValues>
        -2.5408056378364563e-01 6.2654858827590942e-01</leafValues></_>
    <_>
      <internalNodes>
        0 -1 87766 331300511 -570949653 -34604309 -1610743812 -402850417
        -271122579 -1116711 -67274756</internalNodes>
      <leafValues>
        -2.6013147830963135e-01 5.8817547559738159e-01</leafValues></_>
    <_>
      <internalNodes>
        0 -1 31189 1388902340 -150155932 1731505900 -168755217 -59902020
        -560713564 -80939010 2011034565</internalNodes>
      <leafValues>
        -5.6045043468475342e-01 3.1055700778961182e-01</leafValues></_>
    <_>
      <internalNodes>
        0 -1 173879 1073792064 2147024756 -589760516 1072487420
        -320274460 -1112479064 1069054941 463796220</internalNodes>
      <leafValues>
        -8.3823502063751221e-01 1.8835568428039551e-01</leafValues></_>
    <_>
      <internalNodes>
        0 -1 283545 1073996546 -318770742 -280392870 -1935288961
        -515680762 922487165 -70320201 1693974493</internalNodes>
      <leafValues>
        -6.7376339435577393e-01 1.6590222716331482e-01</leafValues></_></weakClassifiers></stage4>
</opencv_storage>
