<?xml version="1.0"?>
<opencv_storage>
<stage7>
  <maxWeakCount>12</maxWeakCount>
  <stageThreshold>-1.6914550065994263e+00</stageThreshold>
  <weakClassifiers>
    <_>
      <internalNodes>
        0 -1 536848 1213387543 -79367183 -1056802956 -539961420
        -607585346 -373254687 -571670785 2147483647</internalNodes>
      <leafValues>
        -7.0951789617538452e-01 -9.1840215027332306e-02</leafValues></_>
    <_>
      <internalNodes>
        0 -1 348947 1648514048 966688759 156166246 -1613117827
        1203051258 -1161638453 -137808129 1976562687</internalNodes>
      <leafValues>
        -5.9570926427841187e-01 1.4128166437149048e-01</leafValues></_>
    <_>
      <internalNodes>
        0 -1 43639 467803899 -21236762 2113404652 -547097610 -1092628805
        -756121602 -17 -20392196</internalNodes>
      <leafValues>
        -3.0035158991813660e-01 4.0451061725616455e-01</leafValues></_>
    <_>
      <internalNodes>
        0 -1 589278 939212799 -671236867 -26484739 -537500165 -555907073
        -1631602832 -163588137 -721476</internalNodes>
      <leafValues>
        -2.2534301877021790e-01 5.3267395496368408e-01</leafValues></_>
    <_>
      <internalNodes>
        0 -1 243226 1073792004 -1027554050 -129992005 -1024732087
        -2121711403 1390061138 -874104473 2013257687</internalNodes>
      <leafValues>
        -6.4378941059112549e-01 2.2368176281452179e-01</leafValues></_>
    <_>
      <internalNodes>
        0 -1 296549 -856496632 -433793628 1108395060 -792661571
        -938947596 1735954821 -626769252 1624570657</internalNodes>
      <leafValues>
        -6.9535183906555176e-01 1.2789116799831390e-01</leafValues></_>
    <_>
      <internalNodes>
        0 -1 368044 -734020165 -554767755 -1073828115 -1618543619
        -1698318607 -193890571 -52630090 -268634308</internalNodes>
      <leafValues>
        -2.5221127271652222e-01 5.0321108102798462e-01</leafValues></_>
    <_>
      <internalNodes>
        0 -1 58884 -1006090988 -1810597530 1683729882 1832858035
        -220349711 1889148102 -471629842 1809046503</internalNodes>
      <leafValues>
        -5.4276955127716064e-01 2.0686335861682892e-01</leafValues></_>
    <_>
      <internalNodes>
        0 -1 6509 481771071 -643567781 -100753561 -772276240 -839426113
        796917621 -10035587 -35854388</internalNodes>
      <leafValues>
        -2.3747506737709045e-01 4.6126660704612732e-01</leafValues></_>
    <_>
      <internalNodes>
        0 -1 503 1074264578 1418559677 -1072309097 -709635771 -114605109
        1738528779 -2146257409 2012215979</internalNodes>
      <leafValues>
        -5.9030145406723022e-01 2.2618591785430908e-01</leafValues></_>
    <_>
      <internalNodes>
        0 -1 12935 925876127 -135340034 -268439747 -1174556674
        -134284033 394131412 -720952 -134348804</internalNodes>
      <leafValues>
        -2.4553884565830231e-01 4.6038287878036499e-01</leafValues></_>
    <_>
      <internalNodes>
        0 -1 45204 -63202042 1175761674 -2069824450 -1342120036
        948951951 1875506079 -238310939 1962409843</internalNodes>
      <leafValues>
        -6.2317651510238647e-01 2.0122091472148895e-01</leafValues></_></weakClassifiers></stage7>
</opencv_storage>
